digraph Tree {
node [shape=box, style="filled, rounded", color="black", fontname="helvetica"] ;
edge [fontname="helvetica"] ;
0 [label="petal length (cm) <= 2.45\ngini = 0.67\nsamples = 94\nvalue = [51, 48, 51]\nclass = setosa", fillcolor="#ffffff"] ;
1 [label="gini = 0.0\nsamples = 32\nvalue = [51, 0, 0]\nclass = setosa", fillcolor="#e58139"] ;
0 -> 1 [labeldistance=2.5, labelangle=45, headlabel="True"] ;
2 [label="petal length (cm) <= 4.75\ngini = 0.5\nsamples = 62\nvalue = [0, 48, 51]\nclass = virginica", fillcolor="#f8f3fd"] ;
0 -> 2 [labeldistance=2.5, labelangle=-45, headlabel="False"] ;
3 [label="sepal length (cm) <= 5.0\ngini = 0.13\nsamples = 27\nvalue = [0, 41, 3]\nclass = versicolor", fillcolor="#47e78a"] ;
2 -> 3 ;
4 [label="gini = 0.0\nsamples = 1\nvalue = [0, 0, 3]\nclass = virginica", fillcolor="#8139e5"] ;
3 -> 4 ;
5 [label="gini = 0.0\nsamples = 26\nvalue = [0, 41, 0]\nclass = versicolor", fillcolor="#39e581"] ;
3 -> 5 ;
6 [label="petal length (cm) <= 5.05\ngini = 0.22\nsamples = 35\nvalue = [0, 7, 48]\nclass = virginica", fillcolor="#9356e9"] ;
2 -> 6 ;
7 [label="sepal length (cm) <= 6.5\ngini = 0.49\nsamples = 9\nvalue = [0, 6, 8]\nclass = virginica", fillcolor="#e0cef8"] ;
6 -> 7 ;
8 [label="sepal width (cm) <= 3.1\ngini = 0.4\nsamples = 7\nvalue = [0, 3, 8]\nclass = virginica", fillcolor="#b083ef"] ;
7 -> 8 ;
9 [label="gini = 0.0\nsamples = 6\nvalue = [0, 0, 8]\nclass = virginica", fillcolor="#8139e5"] ;
8 -> 9 ;
10 [label="gini = 0.0\nsamples = 1\nvalue = [0, 3, 0]\nclass = versicolor", fillcolor="#39e581"] ;
8 -> 10 ;
11 [label="gini = 0.0\nsamples = 2\nvalue = [0, 3, 0]\nclass = versicolor", fillcolor="#39e581"] ;
7 -> 11 ;
12 [label="petal length (cm) <= 5.2\ngini = 0.05\nsamples = 26\nvalue = [0, 1, 40]\nclass = virginica", fillcolor="#843ee6"] ;
6 -> 12 ;
13 [label="petal width (cm) <= 1.75\ngini = 0.32\nsamples = 4\nvalue = [0, 1, 4]\nclass = virginica", fillcolor="#a06aec"] ;
12 -> 13 ;
14 [label="gini = 0.0\nsamples = 1\nvalue = [0, 1, 0]\nclass = versicolor", fillcolor="#39e581"] ;
13 -> 14 ;
15 [label="gini = 0.0\nsamples = 3\nvalue = [0, 0, 4]\nclass = virginica", fillcolor="#8139e5"] ;
13 -> 15 ;
16 [label="gini = 0.0\nsamples = 22\nvalue = [0, 0, 36]\nclass = virginica", fillcolor="#8139e5"] ;
12 -> 16 ;
}